77 16
11 0.04126487 0.17640382 0.38163534 0.35135677 -0.3878725 -0.015477751 0.5281192 0.48849717 0.090983756 -0.16791193 0.3798222 -0.11600803 -0.11026781 0.01470288 -0.5355217 -0.35827678
49 -0.41249636 -0.050921112 -0.06526068 0.65115124 0.26706845 0.22075686 0.22257686 0.29879493 -0.13534512 -0.013936832 -0.030815382 -0.30568188 -0.20597278 -0.40743494 -0.7936311 0.07617328
56 -0.4082675 0.12141056 0.11199323 0.6691864 0.11247692 0.3170973 0.5484036 -0.25858164 0.40488458 0.18625784 -0.1409988 -0.12295317 -0.026602056 -0.33239183 -0.32199332 -0.12047674
28 -0.06915688 0.01809476 0.12020595 0.29491425 0.2200999 0.10235162 0.76503044 0.2846236 0.06656664 -0.08031702 0.25810835 -0.016094174 -0.2032367 -0.19404863 -0.41099295 -0.33523017
24 -0.7329589 -0.35245803 0.10519992 0.029503627 -0.15365833 -0.31618953 0.8371894 -0.10577791 0.044528607 -0.21633005 0.1941949 0.008465941 -0.3218314 -0.2504339 -0.25694287 -0.22546759
26 -0.2584146 -0.15588388 -0.092692986 0.36636296 -0.012670517 0.066312715 0.8016493 0.093772516 0.13097937 0.4564089 0.3694576 -0.045615353 -0.09438155 -0.3539558 -0.24956974 0.19771352
2 -0.14665395 0.4588355 0.3575347 0.6121272 -1.1860527 0.0214946 0.18006276 0.6790834 1.1280321 -0.31413668 0.41934586 0.76869076 -0.6933545 -0.12013685 -0.46531844 0.07810281
59 -0.37578812 -0.40784743 0.14544925 0.733274 0.15654984 0.40582916 0.23273087 0.20939834 0.25560609 -0.00029341452 0.072908655 -0.29030532 -0.23012319 -0.25624406 -0.31527397 0.0476399
42 -0.31435484 -0.18547393 0.033893183 0.50319695 0.18881452 0.10097666 0.42562458 0.15937336 0.13846134 0.1329285 0.5317331 -0.16541159 -0.050231233 -0.39755762 -0.46550208 0.19084503
25 -0.25761375 0.05319689 0.24771836 0.56911594 0.33077022 -0.016012268 0.68951064 0.01675897 0.11048039 0.20949003 0.38236943 0.26412767 -0.10288383 -0.21517567 -0.23888631 0.25880432
27 -0.39035344 0.21038596 0.4366205 0.3750598 0.07983791 -0.033715952 0.8474162 0.020132003 0.12140248 0.19337979 0.08106959 0.097370215 0.2232189 -0.054328248 -0.30156544 -0.18891717
63 -0.32539615 -0.3290272 0.008106316 0.97109133 0.22129928 0.3646791 0.29821363 0.07918667 0.24465735 -0.042268567 -0.042954028 -0.21440639 -0.0029620042 -0.28967965 -0.4867161 0.02101611
65 -0.2289792 -0.3909961 0.19993879 0.95203036 0.0022252928 0.56565773 0.18234065 0.05520281 0.07733983 -0.06732609 -0.12726846 -0.18812363 -0.15144941 -0.3760444 -0.3894346 -0.05366096
58 -0.17261449 -0.080622 -0.084795624 0.7895401 0.19681476 0.47941157 0.2955317 -0.07514532 0.4594698 0.020843986 -0.19692005 -0.28815457 -0.18467349 -0.75115764 -0.40036753 -0.14795877
64 -0.2625668 -0.28593415 0.08875581 0.95738095 0.1981462 0.3828366 0.18411936 0.075274974 0.28323546 0.03326238 -0.089477904 -0.33851993 -0.038174327 -0.46009222 -0.46369 -0.07082175
66 -0.4101823 -0.2983259 -0.045661353 0.98117274 0.07799933 0.41402373 0.10949569 0.13060766 0.2792265 -0.117769614 -0.14266637 -0.31608212 -0.18369992 -0.42829582 -0.44331083 -0.05772122
69 -0.27657136 -0.09299511 -0.011584423 0.49181765 0.15937099 0.066044874 0.63069564 0.28939414 0.13357757 0.23484625 0.45838797 0.0024837013 -0.0917424 -0.35300958 -0.17151943 0.27266634
62 -0.24514976 -0.51001376 0.16282073 0.89568496 0.15309316 0.37280262 0.2297706 0.1321408 0.2672847 -0.12653904 -0.1788495 -0.2730446 -0.029440288 -0.35266396 -0.48104197 -0.064960025
71 -0.20137584 -0.05251713 -0.021440305 0.5901113 0.24249834 0.033308394 0.50607413 0.15161015 0.07827894 0.144824 0.50825864 -0.0818661 -0.28244936 -0.3329944 -0.32418025 0.1560513
70 -0.22399409 0.0120850755 0.019385638 0.54139686 0.27518892 0.06438243 0.5627743 0.25678557 -0.022244548 0.1769876 0.43819106 -0.040928237 -0.2155296 -0.21626022 -0.44326344 0.19270866
60 -0.3342846 -0.5941184 0.04560857 0.96957237 0.15113077 0.35515094 0.22025132 0.049964126 0.22752059 -0.09850902 -0.065484054 -0.37584138 -0.00026732462 -0.5629284 -0.44099307 0.07432
72 -0.120858334 -0.121716455 -0.0586076 0.50088185 0.23200275 0.100841165 0.5068681 0.27978864 0.060398724 0.24029812 0.4168812 -0.0638211 -0.3630577 -0.38059077 -0.37682 0.16859376
67 -0.35243255 -0.45830458 0.051686235 0.8741308 0.08174783 0.4767419 0.16057298 0.111798465 0.28631538 -0.03803553 -0.26210827 -0.37012395 -0.22480254 -0.3164748 -0.53432405 -0.071683474
18 -0.9691527 -0.3403426 0.11535418 0.30899954 -0.05828129 -0.3025549 0.7418764 -0.10795378 -0.104147084 0.042375006 -0.19144922 0.4275686 -0.33875087 -0.38919112 -0.04603107 -0.33064833
50 -0.40960157 0.13618596 0.75896937 0.7117612 0.26448318 0.1358889 0.63011855 -0.15245533 0.22671056 0.38371703 -0.036743723 0.42816934 0.3753969 -0.04142234 -0.27870256 0.009054454
52 -0.5660116 0.3743234 0.25081718 0.25973827 0.034889564 0.6950373 0.81070095 -0.16681004 0.4480722 0.61508226 -0.036952466 0.28375405 0.27395537 -0.10597299 -0.39961818 -0.21361418
30 0.06485554 -0.084249206 0.7052422 0.0020568038 -0.344145 -0.0020518804 0.62534106 -0.14081335 -0.17582868 0.08895272 0.2507292 0.069757245 -0.5933365 -0.4591871 -0.5359738 -0.10592469
61 -0.42918214 -0.44816557 0.048656132 0.9341815 0.23789878 0.536805 0.17302991 0.1807077 0.21758372 -0.07593692 -0.17105636 -0.22634341 -0.1454453 -0.32008338 -0.44248635 -0.0719157
76 -0.11677637 -0.18589002 -0.20184617 0.54393923 0.41120526 0.13435765 0.5709897 0.16192076 0.09546364 0.24618706 0.550978 0.029485818 -0.24808685 -0.3472359 -0.5207973 0.19401337
77 -0.2427148 -0.42676473 0.14397356 1.0081121 0.07411897 0.40330634 0.23856878 0.15735191 0.1472159 0.06917498 -0.06403152 -0.33996555 -0.04250458 -0.33055702 -0.3783838 -0.0124460785
22 -0.90706384 -0.5899439 0.05983959 0.31671882 -0.34247684 -0.61575896 0.79378587 -0.053472903 -0.18487506 -0.06461597 -0.16341777 0.19785446 -0.2746819 -0.5678654 -0.028696865 -0.5654636
36 0.23547587 0.06976501 0.67962664 0.031634487 -0.49287623 0.16403684 0.5406616 0.0027196913 -0.24860242 -0.04793693 0.23634915 0.061571527 -0.6407935 -0.56017196 -0.55474323 -0.09906996
20 -0.96874934 -0.59495914 -0.041634616 0.3211424 -0.2458379 -0.44581112 0.6892019 -0.09262674 -0.20343702 -0.006906857 0.019247683 0.37694752 -0.47980633 -0.3741367 -0.15884471 -0.5616941
38 0.18222721 0.0874605 0.7831667 -0.12573959 -0.40756953 0.22053243 0.6443384 0.009791186 -0.3560008 -0.0120069655 0.22143202 0.098069005 -0.63987386 -0.40530828 -0.750775 -0.20266066
23 -0.8828039 -0.41235283 0.005919203 0.23534074 -0.33906385 -0.6122056 0.7873884 -0.0002768421 -0.16543102 0.009013125 -0.20352472 0.25172472 -0.3034925 -0.5518658 -0.13794768 -0.6097794
39 0.24659859 -0.03885822 0.8363001 -0.059213966 -0.43369794 0.24659705 0.586021 0.11503556 -0.31363574 -0.04336304 0.21706249 0.29027295 -0.45455754 -0.47200346 -0.6737722 -0.07127118
21 -1.0172706 -0.3898504 -0.008171613 0.30791026 -0.15878136 -0.38182607 0.777413 0.056005143 -0.3501933 0.026958179 -0.119159766 0.32662818 -0.3879091 -0.39651754 -0.09554409 -0.4896303
19 -0.9460618 -0.4601451 0.07638458 0.33133242 -0.2534921 -0.45159686 0.7813011 -0.024065187 -0.26709846 -0.13422781 -0.22942445 0.42897853 -0.5312061 -0.43784288 0.01393322 -0.59216326
37 0.08815878 0.024637215 0.8950438 -0.202788 -0.4372077 0.18026446 0.6156011 0.0044931225 -0.48315567 0.1321531 0.3808626 0.08019877 -0.4753536 -0.63090944 -0.605618 -0.22102508
17 -0.9561154 -0.36668435 -0.02507422 0.23207368 -0.1396195 -0.45689505 0.88909006 -0.13809724 -0.10018149 -0.11039263 -0.2336554 0.28161094 -0.55702907 -0.48438993 -0.03896354 -0.5441644
35 0.14912458 -0.051959503 0.87542 0.03307579 -0.290477 0.19471642 0.64649683 -0.06177163 -0.35883224 0.01792691 0.23464532 0.050310757 -0.6011739 -0.3750168 -0.6029816 -0.17788117
32 -0.5056118 -0.21157125 0.40478438 -0.08269012 -0.032748092 0.041914992 1.0063765 0.3157189 0.1757877 -0.1370786 -0.046371095 -0.3989615 -0.52432644 0.06015157 0.009402383 -0.02007514
29 -0.22476172 -0.03679106 0.6352404 -0.012086255 0.6560887 0.41250044 0.49425068 0.84088385 0.43166807 -0.22721976 0.26444763 0.2186012 -0.18581721 -0.64543027 0.0121513475 -0.75473547
55 -0.580969 0.46152827 0.48502716 0.53323406 -0.015428427 0.3954865 0.5849863 -0.13752705 0.20344976 0.19399069 -0.037805475 0.024831362 0.3300137 -0.19957665 -0.28310442 -0.050983306
40 -0.45152262 -0.06693203 -0.017049575 0.22898845 -0.28612652 0.5123147 0.7275897 -0.37409276 0.6251031 0.5016204 0.16999882 0.06350636 0.18142939 -0.18966605 -0.54306614 -0.11958166
43 0.0105594285 0.105853684 -0.12629728 0.42265898 0.15321179 0.16485877 0.815611 0.31803483 0.078866735 0.22571872 0.363274 0.08646052 -0.07255662 -0.61828125 -0.19599843 0.33315158
4 -0.05250888 0.36491483 0.5242172 0.28860244 -0.7188748 -0.07138016 0.3783566 0.6920523 0.9271238 -0.26902932 0.43137223 0.20929255 -0.3789801 0.03807002 -0.3738896 -0.028694162
3 -0.17087732 0.18194185 0.5118277 0.33072886 -0.79024 -0.0985395 0.26396164 0.9028676 0.6948558 -0.32215944 0.32329628 0.47487566 -0.2977697 -0.044298537 -0.41720384 0.18711826
73 -0.2690131 0.27339756 0.44945937 0.13405189 0.14900488 0.089483574 0.7197058 0.42767632 0.14823395 0.01855779 0.19603674 0.2272886 -0.22303341 -0.17345423 -0.161079 -0.030947374
44 -0.2616211 0.25423208 0.5451125 0.2997235 0.15965824 0.1319327 0.813913 0.27276835 0.08746134 0.16298607 0.09319541 0.09504887 -0.04055275 0.049834087 -0.2405046 -0.03193448
51 -0.37102827 0.5071894 0.27078682 0.6453279 -0.20236179 0.06050088 0.83067244 -0.0021292155 -0.015991358 -0.03193389 0.2326593 0.011219683 0.27532437 -0.4334724 0.021439169 0.27378172
53 -0.53308153 0.06759159 0.13481396 0.214073 -0.397932 0.48716214 0.7090771 -0.34368736 0.6943773 0.7975396 0.13581999 -0.3259104 0.3065638 -0.4283023 -0.26178086 -0.19972007
57 -0.49489817 0.43029344 0.49368083 0.6902297 -0.14829323 0.4056082 0.5505328 -0.042896725 0.12804113 0.2265135 -0.15680139 0.100627065 0.33285874 -0.2943215 -0.17046554 0.16152018
31 -0.40194204 -0.1827168 0.21172792 -0.010453746 -0.08832577 -0.177029 1.1401343 0.29853246 0.046441384 -0.16478224 -0.0031481804 -0.39688933 -0.67984676 0.023598395 0.037428353 -0.30234817
47 -0.7523192 0.17428115 -0.16739734 0.57461584 0.052976847 0.5129578 -0.014875804 0.81805307 -0.42164654 0.78550214 -0.10042033 -0.5200672 -0.66460913 -0.0911544 -0.913445 -0.02776007
34 -0.13378698 0.1123985 0.47905043 0.13107814 0.08463701 0.23117751 0.69911975 0.58543015 -0.042907823 0.12798388 0.26040325 -0.15775678 -0.4077848 -0.081617706 -0.22662269 0.023671314
74 -0.29122162 0.038193434 -0.051361382 0.6212686 0.30742884 -0.13081218 0.10792772 0.9027913 -0.07863861 -0.016047223 -0.5637632 -0.22901091 -0.13536154 -0.9089555 -0.8926019 0.5005995
75 -0.3354609 -0.0039280634 -0.01300193 0.54101455 0.37981245 -0.18442573 0.073415704 0.81881887 -0.09474715 -0.011117682 -0.614811 -0.32879582 -0.22917616 -0.9201676 -0.9700811 0.16567491
45 0.012058777 0.0411604 0.7092984 0.27088636 0.31887007 0.1458378 0.45949298 0.7301418 0.23799255 -0.028412577 0.42725325 0.18053326 0.05027674 -0.48519722 -0.08597016 -0.7170252
13 -0.21455245 -0.17365034 0.16819386 0.14519803 -0.32333624 -0.10961964 0.8525212 0.39443555 0.077644266 -0.019048043 0.1684468 0.062148266 -0.61174095 -0.09526555 0.019580996 -0.12965694
1 -0.55481553 0.47275284 0.5130977 0.56075823 -0.86143714 -0.07583836 -0.115822755 0.717218 1.079845 -0.11895359 0.5128778 0.502414 -0.6211914 -0.053671796 -0.43135017 0.13748366
54 -0.68606025 0.29842022 0.50184053 0.23099692 -0.15039116 0.3981401 0.7096938 -0.21661338 0.3423519 0.70293546 0.047632616 -0.0011092707 0.4286 0.0068608113 -0.4731378 -0.38553202
10 -0.33986583 0.34189275 0.59698486 0.4116336 -1.0844777 -0.2218461 0.045390412 0.7317554 1.1631728 -0.34380475 0.4469694 0.2765687 -0.7100876 -0.3072486 -0.30529824 0.1912587
68 -0.5149284 -0.5694934 0.33711514 0.63049126 -0.01775055 0.7282871 0.17072561 -0.029122733 0.38864273 0.19286397 -0.13195255 -0.27380744 0.18956351 -0.7803768 -0.3042907 0.25273016
6 -0.5068396 0.5421299 0.6074865 0.3696459 -0.9746679 -0.2784985 0.052386165 0.56172013 1.0011749 -0.05728876 0.47281462 0.44674566 -0.5617925 -0.21793441 -0.4537094 0.32157987
8 -0.34784287 0.46892634 0.6410565 0.43746144 -1.1743611 -0.3509413 0.11008485 0.45299867 1.1602138 -0.18939695 0.5063689 0.40765727 -0.5970895 -0.24955842 -0.45469344 0.08884196
9 -0.32710624 0.3630282 0.64700717 0.49251118 -1.0853595 -0.15461075 0.108641505 0.8071844 1.0029457 -0.117645055 0.50916487 0.33588034 -0.68003935 -0.11997519 -0.3200812 0.13389017
5 -0.35901204 0.40738615 0.6667237 0.4601279 -0.8333244 -0.18428107 -0.012177094 0.8492821 1.086509 -0.22945692 0.41847464 0.41747016 -0.58085734 -0.2681387 -0.43001318 0.09258835
7 -0.41869512 0.5304719 0.7193703 0.54458064 -1.1432972 -0.19925249 0.10479758 0.45991996 1.0306029 -0.1015038 0.54787785 0.43826276 -0.52278805 -0.039251808 -0.48694003 0.25894752
46 0.0027257602 -0.18088166 0.5980392 0.14505398 0.49507248 0.31834847 0.54784214 1.1455696 0.26683965 -0.16073006 0.42510462 -0.025603984 0.06454042 -0.7493274 0.18193123 -1.0468403
33 0.047175348 0.0342918 0.5171275 0.22931848 -0.2117315 0.28026044 0.5500496 0.6166027 0.17623657 -0.07176459 0.23848306 0.14802733 -0.28032842 0.051898513 -0.39452958 -0.055480476
15 -0.03625702 0.1394151 0.44455442 0.28641745 -0.20066006 0.2977867 0.48544034 0.58395374 0.0133689 0.04634314 0.077091485 0.1762754 -0.37693277 0.02524016 -0.3790736 -0.14449294
12 -0.11258971 -0.009161676 0.4001065 0.21098007 -0.2511419 0.18309076 0.558799 0.34626502 0.13742156 -0.0056256526 0.14239615 0.3694323 -0.41692522 -0.11965187 -0.21262819 -0.2814534
48 -0.95257556 0.14491186 -0.22024117 0.49121872 -0.05916634 0.4700656 -0.09227075 0.8501342 -0.48863468 0.6826013 -0.13604693 -0.39145088 -0.664308 0.0011268036 -0.94979453 -0.093393534
41 -0.38902992 0.003917327 -0.5190351 0.26175424 0.039941482 0.23766868 0.8671974 0.06894311 0.09216804 0.5452672 0.6094122 -0.035592802 -0.20263311 -0.25994465 -0.48602805 0.09364438
16 0.05181657 -0.025177369 0.62046754 0.21713896 -0.19555268 0.07693218 0.6687847 0.5049227 0.012616432 -0.09943534 0.13768947 0.06837977 -0.3214307 -0.008262819 -0.32408094 -0.08963421
14 -0.01865051 0.085848905 0.5476175 0.4244601 -0.14980116 0.12641594 0.5327895 0.598636 -0.22008106 -0.11729331 0.13410053 0.332481 -0.39992958 -0.007872606 -0.23673248 -0.10309597
