77 16
11 -0.12601484 0.088030584 0.49362943 0.24332681 -0.4536683 0.05108867 0.645277 0.5999143 -0.16376676 0.13431293 -0.07848637 0.025474297 -0.3261834 -0.11299858 -0.0025948044 0.08097532
49 -0.28873354 -0.16277714 0.04916706 0.26786 0.1886381 0.25892684 0.58424735 0.21787488 0.14373417 0.4337255 -0.18879797 -0.32139587 -0.47138512 -0.62286925 -0.022539925 -0.11187145
56 -0.5053515 -0.116713956 0.31443357 0.5082605 0.19469087 -0.07398612 0.62093127 0.00044038508 0.039404947 0.08600406 -0.087696485 -0.18098855 -0.04153881 -0.36034676 0.19170517 0.021162365
28 0.044022556 -0.3372116 0.39570376 0.19841516 -0.4841744 0.18706192 0.61123294 0.24992315 0.10914024 0.27073145 -0.053075317 -0.23281977 -0.1501421 -0.18430258 -0.22252317 -0.10212375
2 -0.621622 0.4221597 1.3210028 -0.22741593 -0.14730644 0.10472334 0.025888467 0.9388816 0.26722318 -0.383008 -0.024145504 -0.29742754 0.1966971 -0.6465083 -0.24310693 -0.14502472
24 -0.0449403 -0.14147332 0.66859293 0.43220004 -0.5122241 -0.14874318 0.3580886 -0.52615666 -0.07362038 0.2369237 0.37660474 -0.098949976 -0.07211617 -0.7156913 0.3356879 -0.1268704
26 -0.032355275 -0.12993088 0.14579704 0.4809373 -0.31618667 0.4239345 0.7070944 0.11258924 0.08010933 0.25242227 -0.1746393 0.11172211 0.21473865 -0.5121084 -0.07551452 -0.069134966
59 -0.38561937 -0.058279026 0.23619609 0.4152476 0.32171205 0.04870642 0.7492378 -0.103171565 0.0027313994 0.2418679 -0.023356492 -0.3656491 -0.25116652 -0.34313756 -0.29929885 -0.06304708
42 -0.18582004 -0.12244728 0.19604868 0.36942574 0.09510208 0.28896466 0.7019024 0.15630478 0.2148005 0.25804085 0.3408139 0.12176852 0.0215893 -0.43785203 -0.3277532 -0.1796501
63 -0.22443214 -0.08327652 0.123816095 0.58411205 0.27937865 0.059259273 0.8469778 -0.23009962 0.07019144 0.16013227 0.11184062 -0.24856173 -0.111202285 -0.479438 -0.2776129 -0.04987732
27 -0.3678876 -0.26079944 0.4016903 0.3060302 -0.3446891 -0.07929905 0.5856899 0.113509074 0.6637623 0.2811055 0.010151337 -0.20419812 0.100022145 -0.06390018 0.078084424 -0.08080641
25 -0.4714589 -0.15748782 0.21873638 0.2914843 -0.32927802 0.3804501 0.574372 0.32649475 0.25240347 0.32015246 0.28317747 0.17575265 0.120174766 -0.29415 -0.06796502 -0.08677046
58 -0.22624432 -0.031529926 0.18300734 0.7704759 0.56808627 0.039199147 0.6283484 0.026568525 -0.000103099825 0.12739784 -0.12264329 -0.42640445 -0.26518953 -0.517146 -0.43174878 -0.032877132
65 -0.24308 0.03148229 0.24685119 0.5328166 0.29839718 -0.11596812 0.8064976 -0.012651629 -0.1436597 0.059318803 0.0474526 -0.3939102 -0.09245034 -0.36810285 -0.381134 -0.14026667
64 -0.23098971 -0.0018875273 0.2290641 0.5205169 0.43413657 0.10083959 0.8847179 -0.22864316 0.046642855 0.058523137 -0.06808918 -0.47272825 -0.22428149 -0.38587466 -0.33804503 0.01928734
66 -0.26232782 0.1550102 0.17968084 0.44427305 0.4406197 -0.08236332 0.9065991 -0.07469879 0.047855124 0.14295375 -0.09999345 -0.55931723 -0.30080715 -0.37130687 -0.39854372 -0.04118681
62 -0.38452467 0.05376351 0.25919855 0.57319564 0.4902542 -0.112231515 0.68185735 0.00444535 0.07940323 0.23203021 -0.10404073 -0.3617601 -0.20990646 -0.3871919 -0.37125528 0.058105204
67 -0.27406657 -0.01840856 0.103965566 0.4683336 0.40595764 -0.02583838 0.83800024 -0.12029542 0.004479143 0.26809937 -0.099475615 -0.47405443 -0.12546429 -0.5198414 -0.37419975 -0.14155616
60 -0.19940816 0.044943266 0.2637802 0.46782693 0.4361485 0.017744858 0.827667 -0.062349502 -0.08406206 0.20541622 -0.05553584 -0.4237241 -0.22411233 -0.39222035 -0.27136344 0.031014347
71 -0.09208297 -0.12439523 0.19006693 0.3998244 -0.18916549 0.32713914 0.66011024 0.3522359 0.12077777 0.17220491 0.33722773 0.08648251 -0.0020516783 -0.41565144 -0.18518831 -0.038467593
18 -0.44750857 -0.25293654 0.4516861 0.82133776 -0.43615198 -0.17879307 0.20124424 -0.4237223 -0.010696516 0.3161784 -0.009348625 -0.09379645 0.056894504 -0.688189 0.41763252 -0.17508633
70 -0.18611312 -0.1876589 0.28920093 0.3527799 -0.12676758 0.42406362 0.5663372 0.2594966 0.12088838 0.13560154 0.16471854 0.02647289 -0.1287755 -0.4225216 -0.19409491 -0.036595166
69 -0.1851589 -0.33364242 0.25377956 0.2553532 -0.14737529 0.43797705 0.64150447 0.19349946 0.1907526 0.20692632 0.20735624 0.05077786 -0.15339501 -0.39595917 -0.13118148 -0.025777692
30 -0.04894846 -0.22117274 1.2222269 0.06459245 -0.2541944 0.13773851 0.4112048 0.040289357 -0.2753942 0.17143475 -0.020178637 0.14454933 -0.30901745 -0.001321764 0.20261489 -0.32195655
61 -0.36834696 0.056352973 0.31525552 0.6234196 0.4156559 -0.08775642 0.7040349 -0.14040655 -0.12293702 0.015649047 -0.10327365 -0.48297256 -0.17807986 -0.38736865 -0.3688073 -0.043379273
72 -0.064388104 -0.225315 0.18930751 0.2542699 -0.2507266 0.4191468 0.65669715 0.26667672 0.12925538 0.20857291 0.30715683 0.13638377 -0.21707755 -0.46757144 -0.21545033 -0.14026774
50 -0.7470616 -0.17481351 0.29793411 0.18139614 -0.13110027 -0.046267804 0.8996445 0.05788792 0.6129643 0.14939146 -0.18482423 0.2341669 -0.0892988 -0.122017846 0.5556846 0.34352532
52 -0.4183324 -0.46409956 0.38323972 0.51314765 0.23572962 -0.0986242 0.74898905 0.26807943 0.42278206 -0.08866368 -0.71933883 0.2551317 0.20061961 -0.30847815 0.57232213 0.15992272
77 -0.24606942 -0.054800775 0.11556789 0.5577376 0.4976308 0.15203044 0.7817693 -0.22662464 0.0046707666 0.23193216 0.041479044 -0.5480155 -0.21693018 -0.59298056 -0.36071867 -0.07836421
76 -0.08923247 -0.029187122 0.16362101 0.50131726 -0.0023018222 0.48255756 0.5601609 0.29295075 0.19773829 0.21543233 0.1957957 0.018021567 -0.06988404 -0.47626793 -0.23105668 -0.14238372
17 -0.469387 -0.26940528 0.4859563 0.46826708 -0.5333796 -0.28549933 0.26197082 -0.52844524 -0.03179711 0.4554754 0.15796743 -0.09859352 -0.031866975 -0.7940086 0.53185743 -0.33757484
22 -0.36721417 -0.07391146 0.5607277 0.61771905 -0.6354362 -0.28601834 0.18428402 -0.4329629 -0.17200509 0.42499277 0.17026249 -0.110419914 -0.061458554 -0.88621515 0.49886897 -0.38617912
23 -0.5293906 -0.23634407 0.5420212 0.644908 -0.6516619 -0.3485217 0.19275622 -0.5774351 -0.12324197 0.2862185 0.10770407 -0.018986637 0.0027144062 -0.85504234 0.4316086 -0.42608774
38 0.3676725 -0.11371632 1.3887078 0.08033902 -0.22193334 0.1510353 0.56613505 0.2439963 -0.0899652 0.07461865 0.038160913 0.0903289 -0.24677593 0.05623969 0.21807663 -0.18186119
21 -0.43710178 -0.14391492 0.55724233 0.52452374 -0.51934695 -0.3642275 0.21332125 -0.5564431 0.08472652 0.40065432 0.033319484 -0.051812876 0.008393374 -0.79967237 0.40282348 -0.5696009
36 0.23673792 -0.2640604 1.4935786 0.09766117 -0.15727569 0.22531061 0.46155488 0.18035598 -0.26465023 0.032220647 0.06671119 0.058676787 -0.36589628 0.11788044 -0.05717656 -0.1978809
37 0.13343602 -0.33379704 1.4688295 0.03349226 -0.1311912 0.1482006 0.56249213 0.07926001 -0.28689262 0.032515194 -0.032608468 0.24701571 -0.3502149 0.123861454 -0.017862584 -0.12526456
20 -0.40747842 -0.3064555 0.53968835 0.677313 -0.5993068 -0.18784215 0.22473891 -0.60771704 -0.011451743 0.26450008 0.11626042 0.0970253 -0.1517307 -0.91532874 0.41248277 -0.34031096
19 -0.37829944 -0.21539447 0.4682437 0.54505265 -0.6227019 -0.19463924 0.15102658 -0.345275 -0.17840816 0.32435632 0.20532311 -0.061205592 -0.010823171 -0.95336246 0.48620734 -0.5038317
39 0.195814 -0.1497511 1.3861426 0.007426822 -0.20904416 0.21081847 0.54661644 0.20544794 -0.14138255 0.13638398 -0.084251545 0.15766 -0.44567108 0.18931484 -0.05354959 -0.20196325
35 0.15383923 -0.10622045 1.3754308 0.036223423 -0.16554081 0.34682173 0.5784688 0.26911017 -0.25584838 -0.016768793 0.032441676 -0.020759434 -0.33570105 0.20071276 0.06952226 -0.29138336
29 -0.13505103 -0.75339067 0.2798514 -0.17321002 -0.8595188 -0.3197176 0.8536313 0.5411896 -0.32450438 0.059914652 -0.4180988 -0.06396902 -0.20232952 -0.35890308 -0.46852905 0.13625728
3 -0.45675528 0.36757296 0.9017743 -0.28434223 -0.29553252 0.018163301 0.21877186 0.8218237 0.30337176 -0.24545969 -0.24846247 -0.058871243 -0.066327475 -0.67042005 -0.32189196 0.028446103
55 -0.61573404 -0.053815257 0.3477637 0.6996106 -0.05026314 -0.0013256929 0.53587997 0.094477855 0.53820395 -0.010794098 -0.17410234 -0.07067058 -0.004074137 -0.15086345 0.38282964 0.19164751
32 -0.11334162 -0.13677241 0.7079365 -0.06502813 -0.79046834 -0.011231332 0.7381359 -0.49643332 0.13713759 0.21936432 0.2122211 0.021946747 0.18501602 -0.34355202 -0.029309751 -0.15285644
4 -0.42039722 0.45903206 0.87489194 -0.24306986 -0.2614631 -0.062105495 0.19403471 0.96845245 -0.0033201168 -0.14782828 -0.32579055 -0.15125126 -0.06903588 -0.72654134 -0.27751827 0.16017278
40 -0.17684354 -0.48741055 0.2511505 0.67304987 0.18343487 -0.0034018527 0.7026917 0.36408618 0.11764509 -0.15190099 -0.48820344 0.22333333 0.5511397 -0.4400186 0.21156184 -0.2498913
43 -0.19985668 -0.16824816 0.10599012 0.7089128 -0.34312332 0.31488642 0.5006714 0.19506788 0.12167764 0.26751664 0.41599706 0.2144869 -0.008361349 -0.50524515 -0.13745023 0.027576558
73 -0.28729075 -0.3544169 0.55428433 0.18243757 -0.4883211 0.06277027 0.4117367 0.2498597 0.2866294 0.16873662 -0.06085544 -0.10288849 0.07733761 -0.25136778 -0.29858515 0.27610987
44 -0.41269454 -0.37344813 0.5525721 0.2679408 -0.41471794 0.115242675 0.42707124 0.26674885 0.2789167 0.3228417 -0.14280383 -0.07490106 -0.05367718 -0.010859441 -0.08876572 0.15251575
53 -0.39995188 -0.10253236 0.20961498 0.5044987 0.07032152 -0.1203201 1.0281631 0.46128598 -0.05872859 -0.09336794 -0.3265145 -0.23196179 0.62479544 -0.1545232 0.68821114 -0.075471476
51 -0.6693918 -0.18454398 0.33203128 0.4762895 -0.3497872 0.26923794 0.5344519 0.19898719 0.69701505 -0.00075406395 0.095579095 0.05215908 -0.106947854 -0.013282492 0.09069283 0.13871777
31 -0.06863411 0.04586038 0.54208016 0.02768696 -0.95218295 0.44494417 0.65249103 -0.6145391 0.018254958 0.14221786 -0.22535673 -0.11134964 0.17154463 -0.58487505 0.075914465 -0.27862433
75 -0.21521217 0.20349686 -0.20125788 0.30313492 0.36236534 0.00734307 0.6637656 0.37100732 0.37431052 -0.19250922 -0.06967879 -0.19499736 -0.97061956 -1.145725 0.08786438 -0.43069494
57 -0.65033257 -0.12549087 0.36277744 0.4262651 -0.1504836 0.0991287 0.59013814 0.046746284 0.68983114 -0.044998195 -0.4226491 -0.25353104 -0.084183335 -0.05823832 0.19579479 0.10628886
45 -0.02867514 -0.7619326 0.4749036 -0.1584857 -0.6015197 -0.53235734 0.72928375 0.47761223 -0.10811714 -0.18100186 -0.121869564 -0.066558994 -0.10711959 -0.42558965 -0.42282352 0.11210746
74 0.011860555 0.10575291 -0.1399259 0.30791864 0.41812825 0.035766747 0.7648016 0.23742768 0.5450032 -0.0944032 -0.024470115 -0.19788827 -1.0950279 -1.0316702 -0.1027756 -0.55120057
34 -0.14216818 -0.3669155 0.60236895 0.15007089 -0.26906115 0.047565605 0.50556624 0.3128861 0.07160353 0.32250437 0.07424721 -0.057579864 0.07573289 -0.16892914 -0.31580803 -0.026397001
13 -0.28954846 -0.1814511 0.60681933 0.30315903 -0.55768526 -0.0065266266 0.293673 0.08960165 -0.25897318 0.23147464 0.014452983 -0.044772588 -0.27128136 -0.3456421 0.10121942 -0.44438946
47 -0.059538033 -0.44937408 -0.0021229186 0.37242982 0.37052768 0.449317 0.504635 0.57139415 0.52619046 0.9637767 0.23208897 -1.1873444 -0.32292312 -0.7073133 0.26175526 0.033710975
6 -0.4950514 0.6724609 1.3505181 -0.12999244 -0.18100424 0.04429918 0.060073514 0.8392008 0.35174128 -0.041188125 -0.039549485 -0.017744541 0.1746061 -0.7559148 -0.32002467 0.26655352
7 -0.48441997 0.64885306 1.4623374 -0.25240335 -0.22582538 -0.09506008 -0.015514636 0.923364 0.17313059 -0.008994749 -0.022307366 -0.0239068 0.11543053 -0.92726177 -0.48623765 0.29763755
1 -0.36720636 0.6856787 1.3501457 -0.26691994 -0.18673359 -0.24006915 0.16112512 0.87799597 0.2231384 -0.2115358 -0.25423327 -0.08980328 -0.056101333 -0.9028429 -0.15189622 0.22761887
8 -0.30662498 0.5946642 1.369386 -0.38385546 -0.2491477 0.02652926 0.14732206 0.8577766 0.21385388 0.07382184 -0.13141266 -0.24392298 0.23952475 -0.8941385 -0.3400062 0.34456202
10 -0.55716217 0.64391077 1.4920752 -0.22468361 -0.094158314 -0.0032834902 0.016336817 0.7625842 0.3475625 -0.077816814 -0.28209502 -0.056255806 0.3116741 -0.9386405 -0.32895905 0.19552408
68 -0.24198171 -0.08247564 0.28471357 0.760404 0.77749723 -0.27715355 0.8558589 0.11216778 0.2112207 0.124787055 0.22454081 -0.3153807 -0.18606804 -0.28066713 -0.45060435 -0.007614793
5 -0.44088644 0.7046936 1.4782566 -0.19948122 -0.1801698 -0.08820102 0.037158843 0.7235183 0.1154564 -0.08474076 -0.17198537 -0.051184013 0.2291419 -0.834327 -0.24488516 0.18051365
9 -0.4034116 0.7170454 1.2126693 -0.13096917 -0.0142530175 0.028041836 0.034133688 0.80836457 0.31951746 -0.028343229 -0.15622777 0.015110235 0.025900368 -0.9636087 -0.19638778 0.14101358
54 -0.41723162 -0.19352834 0.34140053 0.64388627 -0.017112693 -0.17738013 0.85963297 0.42009398 0.6000382 -0.36447933 -0.34215054 -0.18376791 0.26696977 0.0022954694 0.732117 -0.064032555
46 -0.13580659 -1.0165858 0.26642933 -0.06717082 -0.97368747 -0.4782531 0.8056046 0.5951703 -0.1691654 -0.23414183 -0.12959845 -0.24514863 -0.21975386 -0.23141222 -0.5711912 -0.113210015
48 -0.23741834 -0.57999414 -0.08387882 0.33618233 0.4742756 0.44735253 0.41838518 0.46955574 0.65342003 0.9714931 0.20881687 -1.2760322 -0.37813228 -0.8986133 0.15188026 -0.028502673
16 -0.1304081 -0.28949723 0.6873445 0.112297684 -0.2945989 -0.0001361603 0.55728334 0.55839425 -0.009003527 -0.19379692 -0.05785019 0.0024956802 -0.45107853 -0.07528352 -0.081849575 -0.32927668
15 -0.11232401 -0.1288253 0.767911 0.063149996 -0.45855156 -0.11171774 0.5668166 0.27579296 0.06868625 -0.24418068 -0.0915055 0.12006505 -0.23759902 -0.22103958 -0.15967266 -0.028498191
14 -0.19240797 -0.261538 0.7901932 0.060090095 -0.3306575 0.12888919 0.4991966 0.60386163 -0.03069082 -0.11428623 -0.036668193 0.051043097 -0.10378142 -0.07153961 -0.09377142 -0.23829049
41 0.07067091 -0.1594499 0.1786095 0.40158686 -0.1918718 0.46940175 0.9630091 0.08177725 0.33460402 0.046695847 0.119363174 0.20711283 0.40668538 -0.38158998 -0.0013107446 -0.2671657
33 -0.15218937 -0.18239562 0.56279045 0.033316538 -0.38534057 0.1406706 0.4198067 0.50163823 0.05736956 -0.04534159 -0.09119312 -0.16017464 -0.37515146 -0.26773706 -0.15971799 -0.30724254
12 -0.14030562 -0.18221311 0.62696445 0.14078905 -0.35653773 0.065023385 0.54853857 0.49525028 0.12972434 -0.05158415 -0.08865594 0.013047098 0.10385661 -0.15104213 -0.059813034 -0.12840663
